<?xml version="1.0"?>
<opencv_storage>
<cascade>
  <stageType>BOOST</stageType>
  <featureType>HAAR</featureType>
  <height>24</height>
  <width>24</width>
  <stageParams>
    <boostType>GAB</boostType>
    <minHitRate>9.9500000476837158e-01</minHitRate>
    <maxFalseAlarm>5.0000000000000000e-01</maxFalseAlarm>
    <weightTrimRate>9.4999999999999996e-01</weightTrimRate>
    <maxDepth>1</maxDepth>
    <maxWeakCount>100</maxWeakCount></stageParams>
  <featureParams>
    <maxCatCount>0</maxCatCount>
    <featSize>1</featSize>
    <mode>BASIC</mode></featureParams>
  <stageNum>9</stageNum>
  <stages>
    <!-- stage 0 -->
    <_>
      <maxWeakCount>4</maxWeakCount>
      <stageThreshold>-1.8026858568191528e+00</stageThreshold>
      <weakClassifiers>
        <_>
          <internalNodes>
            0 -1 30 6.3561871647834778e-02</internalNodes>
          <leafValues>
            -9.4711065292358398e-01 1.4285714924335480e-01</leafValues></_>
        <_>
          <internalNodes>
            0 -1 19 3.7638708017766476e-03</internalNodes>
          <leafValues>
            -7.5950103998184204e-01 4.7657284140586853e-01</leafValues></_>
        <_>
          <internalNodes>
            0 -1 10 -6.2643499113619328e-03</internalNodes>
          <leafValues>
            4.4280979037284851e-01 -7.0527833700180054e-01</leafValues></_>
        <_>
          <internalNodes>
            0 -1 1 -2.0007150247693062e-02</internalNodes>
          <leafValues>
            6.0920417308807373e-01 -5.3689658641815186e-01</leafValues></_></weakClassifiers></_>
    <!-- stage 1 -->
    <_>
      <maxWeakCount>3</maxWeakCount>
      <stageThreshold>-1.4956324100494385e+00</stageThreshold>
      <weakClassifiers>
        <_>
          <internalNodes>
            0 -1 25 2.8501760214567184e-02</internalNodes>
          <leafValues>
            -9.4352483749389648e-01 5.0000000000000000e-01</leafValues></_>
        <_>
          <internalNodes>
            0 -1 31 -8.3223367109894753e-03</internalNodes>
          <leafValues>
            4.0200331807136536e-01 -7.5043582916259766e-01</leafValues></_>
        <_>
          <internalNodes>
            0 -1 24 -4.5194296399131417e-04</internalNodes>
          <leafValues>
            1.9832821190357208e-01 -7.6849478483200073e-01</leafValues></_></weakClassifiers></_>
    <!-- stage 2 -->
    <_>
      <maxWeakCount>4</maxWeakCount>
      <stageThreshold>-1.9357467889785767e+00</stageThreshold>
      <weakClassifiers>
        <_>
          <internalNodes>
            0 -1 18 2.1400409936904907e-01</internalNodes>
          <leafValues>
            -9.3986421823501587e-01 1.</leafValues></_>
        <_>
          <internalNodes>
            0 -1 26 5.4284889250993729e-02</internalNodes>
          <leafValues>
            -7.5333821773529053e-01 4.9724200367927551e-01</leafValues></_>
        <_>
          <internalNodes>
            0 -1 29 -4.0118861943483353e-04</internalNodes>
          <leafValues>
            3.8100519776344299e-01 -6.2829726934432983e-01</leafValues></_>
        <_>
          <internalNodes>
            0 -1 5 -1.1372195556759834e-02</internalNodes>
          <leafValues>
            4.5261439681053162e-01 -6.2354958057403564e-01</leafValues></_></weakClassifiers></_>
    <!-- stage 3 -->
    <_>
      <maxWeakCount>3</maxWeakCount>
      <stageThreshold>-1.8669433593750000e+00</stageThreshold>
      <weakClassifiers>
        <_>
          <internalNodes>
            0 -1 35 3.9349518716335297e-02</internalNodes>
          <leafValues>
            -9.4357979297637939e-01 7.1428573131561279e-01</leafValues></_>
        <_>
          <internalNodes>
            0 -1 27 -2.9939398169517517e-02</internalNodes>
          <leafValues>
            -5.7887591421604156e-02 -8.1134468317031860e-01</leafValues></_>
        <_>
          <internalNodes>
            0 -1 3 1.7046239227056503e-02</internalNodes>
          <leafValues>
            1.6406597197055817e-01 -8.6547601222991943e-01</leafValues></_></weakClassifiers></_>
    <!-- stage 4 -->
    <_>
      <maxWeakCount>6</maxWeakCount>
      <stageThreshold>-1.4729170799255371e+00</stageThreshold>
      <weakClassifiers>
        <_>
          <internalNodes>
            0 -1 21 4.2146770283579826e-03</internalNodes>
          <leafValues>
            -9.4169098138809204e-01 6.6666668653488159e-01</leafValues></_>
        <_>
          <internalNodes>
            0 -1 23 5.0889447331428528e-02</internalNodes>
          <leafValues>
            -7.6988506317138672e-01 2.9455271363258362e-01</leafValues></_>
        <_>
          <internalNodes>
            0 -1 15 -2.7246374520473182e-04</internalNodes>
          <leafValues>
            -8.4191125631332397e-01 7.4871510267257690e-02</leafValues></_>
        <_>
          <internalNodes>
            0 -1 33 1.2381896376609802e-03</internalNodes>
          <leafValues>
            -6.1954545974731445e-01 2.8013733029365540e-01</leafValues></_>
        <_>
          <internalNodes>
            0 -1 4 -9.2165302485227585e-03</internalNodes>
          <leafValues>
            -7.5300526618957520e-01 2.6076641678810120e-01</leafValues></_>
        <_>
          <internalNodes>
            0 -1 20 2.3710185196250677e-03</internalNodes>
          <leafValues>
            -3.4835055470466614e-01 6.3665539026260376e-01</leafValues></_></weakClassifiers></_>
    <!-- stage 5 -->
    <_>
      <maxWeakCount>4</maxWeakCount>
      <stageThreshold>-1.7997512817382813e+00</stageThreshold>
      <weakClassifiers>
        <_>
          <internalNodes>
            0 -1 14 1.5376092866063118e-02</internalNodes>
          <leafValues>
            -9.4174754619598389e-01 1.</leafValues></_>
        <_>
          <internalNodes>
            0 -1 17 7.0775330066680908e-02</internalNodes>
          <leafValues>
            -7.4339944124221802e-01 5.1157569885253906e-01</leafValues></_>
        <_>
          <internalNodes>
            0 -1 12 -9.8676374182105064e-04</internalNodes>
          <leafValues>
            4.8862102627754211e-01 -5.3667682409286499e-01</leafValues></_>
        <_>
          <internalNodes>
            0 -1 16 -2.9196073301136494e-03</internalNodes>
          <leafValues>
            4.2207252979278564e-01 -5.8746033906936646e-01</leafValues></_></weakClassifiers></_>
    <!-- stage 6 -->
    <_>
      <maxWeakCount>5</maxWeakCount>
      <stageThreshold>-1.7449713945388794e+00</stageThreshold>
      <weakClassifiers>
        <_>
          <internalNodes>
            0 -1 7 8.0669917166233063e-02</internalNodes>
          <leafValues>
            -9.4174754619598389e-01 1.</leafValues></_>
        <_>
          <internalNodes>
            0 -1 22 4.8203412443399429e-03</internalNodes>
          <leafValues>
            -7.6291018724441528e-01 4.9865835905075073e-01</leafValues></_>
        <_>
          <internalNodes>
            0 -1 28 -1.4616888947784901e-03</internalNodes>
          <leafValues>
            4.8316624760627747e-01 -5.6290334463119507e-01</leafValues></_>
        <_>
          <internalNodes>
            0 -1 32 -5.1413886249065399e-03</internalNodes>
          <leafValues>
            -7.9841673374176025e-01 3.6883771419525146e-01</leafValues></_>
        <_>
          <internalNodes>
            0 -1 11 8.1726685166358948e-03</internalNodes>
          <leafValues>
            2.7493682503700256e-01 -8.0572593212127686e-01</leafValues></_></weakClassifiers></_>
    <!-- stage 7 -->
    <_>
      <maxWeakCount>5</maxWeakCount>
      <stageThreshold>-1.6977044343948364e+00</stageThreshold>
      <weakClassifiers>
        <_>
          <internalNodes>
            0 -1 8 8.7865211069583893e-02</internalNodes>
          <leafValues>
            -9.5121949911117554e-01 1.</leafValues></_>
        <_>
          <internalNodes>
            0 -1 34 -7.3871528729796410e-04</internalNodes>
          <leafValues>
            2.8244918584823608e-01 -8.7939858436584473e-01</leafValues></_>
        <_>
          <internalNodes>
            0 -1 13 1.5639828052371740e-03</internalNodes>
          <leafValues>
            -6.6442871093750000e-01 6.3904929161071777e-01</leafValues></_>
        <_>
          <internalNodes>
            0 -1 6 -3.1534975278191268e-04</internalNodes>
          <leafValues>
            -7.5354337692260742e-01 4.3399140238761902e-01</leafValues></_>
        <_>
          <internalNodes>
            0 -1 2 -1.5170374535955489e-04</internalNodes>
          <leafValues>
            -7.9849678277969360e-01 4.4428804516792297e-01</leafValues></_></weakClassifiers></_>
    <!-- stage 8 -->
    <_>
      <maxWeakCount>2</maxWeakCount>
      <stageThreshold>0.</stageThreshold>
      <weakClassifiers>
        <_>
          <internalNodes>
            0 -1 9 4.0244773030281067e-02</internalNodes>
          <leafValues>
            1. -9.8807156085968018e-01</leafValues></_>
        <_>
          <internalNodes>
            0 -1 0 2.0726809452753514e-04</internalNodes>
          <leafValues>
            1. -1.</leafValues></_></weakClassifiers></_></stages>
  <features>
    <_>
      <rects>
        <_>
          0 0 1 10 -1.</_>
        <_>
          0 5 1 5 2.</_></rects>
      <tilted>0</tilted></_>
    <_>
      <rects>
        <_>
          0 2 23 6 -1.</_>
        <_>
          0 5 23 3 2.</_></rects>
      <tilted>0</tilted></_>
    <_>
      <rects>
        <_>
          0 5 2 2 -1.</_>
        <_>
          0 6 2 1 2.</_></rects>
      <tilted>0</tilted></_>
    <_>
      <rects>
        <_>
          0 8 5 15 -1.</_>
        <_>
          0 13 5 5 3.</_></rects>
      <tilted>0</tilted></_>
    <_>
      <rects>
        <_>
          0 9 7 6 -1.</_>
        <_>
          0 12 7 3 2.</_></rects>
      <tilted>0</tilted></_>
    <_>
      <rects>
        <_>
          0 13 8 3 -1.</_>
        <_>
          4 13 4 3 2.</_></rects>
      <tilted>0</tilted></_>
    <_>
      <rects>
        <_>
          0 14 10 8 -1.</_>
        <_>
          0 18 10 4 2.</_></rects>
      <tilted>0</tilted></_>
    <_>
      <rects>
        <_>
          2 0 5 12 -1.</_>
        <_>
          2 4 5 4 3.</_></rects>
      <tilted>0</tilted></_>
    <_>
      <rects>
        <_>
          2 9 12 9 -1.</_>
        <_>
          8 9 6 9 2.</_></rects>
      <tilted>0</tilted></_>
    <_>
      <rects>
        <_>
          2 11 22 6 -1.</_>
        <_>
          2 11 11 3 2.</_>
        <_>
          13 14 11 3 2.</_></rects>
      <tilted>0</tilted></_>
    <_>
      <rects>
        <_>
          3 18 6 3 -1.</_>
        <_>
          5 18 2 3 3.</_></rects>
      <tilted>0</tilted></_>
    <_>
      <rects>
        <_>
          5 2 12 4 -1.</_>
        <_>
          9 2 4 4 3.</_></rects>
      <tilted>0</tilted></_>
    <_>
      <rects>
        <_>
          5 20 3 1 -1.</_>
        <_>
          6 20 1 1 3.</_></rects>
      <tilted>0</tilted></_>
    <_>
      <rects>
        <_>
          5 20 6 2 -1.</_>
        <_>
          5 20 3 1 2.</_>
        <_>
          8 21 3 1 2.</_></rects>
      <tilted>0</tilted></_>
    <_>
      <rects>
        <_>
          5 21 6 2 -1.</_>
        <_>
          7 21 2 2 3.</_></rects>
      <tilted>0</tilted></_>
    <_>
      <rects>
        <_>
          6 1 6 2 -1.</_>
        <_>
          6 1 3 1 2.</_>
        <_>
          9 2 3 1 2.</_></rects>
      <tilted>0</tilted></_>
    <_>
      <rects>
        <_>
          6 4 4 6 -1.</_>
        <_>
          6 6 4 2 3.</_></rects>
      <tilted>0</tilted></_>
    <_>
      <rects>
        <_>
          7 1 3 18 -1.</_>
        <_>
          7 7 3 6 3.</_></rects>
      <tilted>0</tilted></_>
    <_>
      <rects>
        <_>
          7 8 16 16 -1.</_>
        <_>
          7 8 8 8 2.</_>
        <_>
          15 16 8 8 2.</_></rects>
      <tilted>0</tilted></_>
    <_>
      <rects>
        <_>
          8 9 2 4 -1.</_>
        <_>
          8 9 1 2 2.</_>
        <_>
          9 11 1 2 2.</_></rects>
      <tilted>0</tilted></_>
    <_>
      <rects>
        <_>
          8 10 2 4 -1.</_>
        <_>
          8 10 1 2 2.</_>
        <_>
          9 12 1 2 2.</_></rects>
      <tilted>0</tilted></_>
    <_>
      <rects>
        <_>
          8 13 3 1 -1.</_>
        <_>
          9 13 1 1 3.</_></rects>
      <tilted>0</tilted></_>
    <_>
      <rects>
        <_>
          8 16 3 3 -1.</_>
        <_>
          9 16 1 3 3.</_></rects>
      <tilted>0</tilted></_>
    <_>
      <rects>
        <_>
          10 7 8 12 -1.</_>
        <_>
          10 7 4 6 2.</_>
        <_>
          14 13 4 6 2.</_></rects>
      <tilted>0</tilted></_>
    <_>
      <rects>
        <_>
          10 8 4 3 -1.</_>
        <_>
          10 9 4 1 3.</_></rects>
      <tilted>0</tilted></_>
    <_>
      <rects>
        <_>
          11 14 4 8 -1.</_>
        <_>
          11 14 2 4 2.</_>
        <_>
          13 18 2 4 2.</_></rects>
      <tilted>0</tilted></_>
    <_>
      <rects>
        <_>
          12 2 8 6 -1.</_>
        <_>
          16 2 4 6 2.</_></rects>
      <tilted>0</tilted></_>
    <_>
      <rects>
        <_>
          12 3 6 16 -1.</_>
        <_>
          14 3 2 16 3.</_></rects>
      <tilted>0</tilted></_>
    <_>
      <rects>
        <_>
          13 10 3 3 -1.</_>
        <_>
          13 11 3 1 3.</_></rects>
      <tilted>0</tilted></_>
    <_>
      <rects>
        <_>
          14 1 2 6 -1.</_>
        <_>
          14 3 2 2 3.</_></rects>
      <tilted>0</tilted></_>
    <_>
      <rects>
        <_>
          14 2 6 9 -1.</_>
        <_>
          17 2 3 9 2.</_></rects>
      <tilted>0</tilted></_>
    <_>
      <rects>
        <_>
          14 3 2 12 -1.</_>
        <_>
          14 3 1 6 2.</_>
        <_>
          15 9 1 6 2.</_></rects>
      <tilted>0</tilted></_>
    <_>
      <rects>
        <_>
          17 2 6 10 -1.</_>
        <_>
          20 2 3 10 2.</_></rects>
      <tilted>0</tilted></_>
    <_>
      <rects>
        <_>
          17 4 3 12 -1.</_>
        <_>
          18 4 1 12 3.</_></rects>
      <tilted>0</tilted></_>
    <_>
      <rects>
        <_>
          17 14 3 3 -1.</_>
        <_>
          17 15 3 1 3.</_></rects>
      <tilted>0</tilted></_>
    <_>
      <rects>
        <_>
          19 0 2 12 -1.</_>
        <_>
          19 4 2 4 3.</_></rects>
      <tilted>0</tilted></_></features></cascade>
</opencv_storage>
